{"learner":{"attributes":{"scikit_learn":"{\"_estimator_type\": \"classifier\"}"},"feature_names":["x0","y0","x1","y1","x2","y2","x3","y3","x4","y4","x5","y5","x6","y6","x7","y7","x8","y8","x9","y9","x10","y10","x11","y11","x12","y12","x13","y13","x14","y14","x15","y15","x16","y16"],"feature_types":["float","float","float","float","float","float","float","float","float","float","float","float","float","float","float","float","float","float","float","float","float","float","float","float","float","float","float","float","float","float","float","float","float","float"],"gradient_booster":{"model":{"gbtree_model_param":{"num_parallel_tree":"1","num_trees":"50"},"iteration_indptr":[0,1,2,3,4,5,6,7,8,9,10,11,12,13,14,15,16,17,18,19,20,21,22,23,24,25,26,27,28,29,30,31,32,33,34,35,36,37,38,39,40,41,42,43,44,45,46,47,48,49,50],"tree_info":[0,0,0,0,0,0,0,0,0,0,0,0,0,0,0,0,0,0,0,0,0,0,0,0,0,0,0,0,0,0,0,0,0,0,0,0,0,0,0,0,0,0,0,0,0,0,0,0,0,0],"trees":[{"base_weights":[8.698192E-8,1.625575E-1,-1.6571122E0,-2.2183037E0,1.2361168E0,9.7780935E-2,-2.3566166E-1,1.4363284E-1,-6.693524E-4],"categories":[],"categories_nodes":[],"categories_segments":[],"categories_sizes":[],"default_left":[0,0,0,0,0,0,0,0,0],"id":0,"left_children":[1,-1,3,5,7,-1,-1,-1,-1],"loss_changes":[2.685045E2,0E0,8.2884766E1,2.0737701E1,2.1646652E0,0E0,0E0,0E0,0E0],"parents":[2147483647,0,0,2,2,3,3,4,4],"right_children":[2,-1,4,6,8,-1,-1,-1,-1],"split_conditions":[6.537126E-1,1.625575E-1,4.6643004E-1,1.9875807E-1,7.7794296E-1,9.7780935E-2,-2.3566166E-1,1.4363284E-1,-6.693524E-4],"split_indices":[14,0,17,1,0,0,0,0,0],"split_type":[0,0,0,0,0,0,0,0,0],"sum_hessian":[9.767647E1,4.9317043E1,4.835943E1,4.069853E1,7.6608996E0,1.4364187E0,3.926211E1,6.463884E0,1.1970155E0],"tree_param":{"num_deleted":"0","num_feature":"34","num_nodes":"9","size_leaf_vector":"1"}},{"base_weights":[5.296271E-3,1.5275064E-1,-1.4533648E0,-1.8992227E0,1.3634336E-1,9.3296714E-2,-2.0144518E-1],"categories":[],"categories_nodes":[],"categories_segments":[],"categories_sizes":[],"default_left":[0,0,0,0,0,0,0],"id":1,"left_children":[1,-1,3,5,-1,-1,-1],"loss_changes":[2.1960825E2,0E0,6.602304E1,1.6246826E1,0E0,0E0,0E0],"parents":[2147483647,0,0,2,2,3,3],"right_children":[2,-1,4,6,-1,-1,-1],"split_conditions":[6.537126E-1,1.5275064E-1,4.6685883E-1,1.9875807E-1,1.3634336E-1,9.3296714E-2,-2.0144518E-1],"split_indices":[14,0,17,1,0,0,0],"split_type":[0,0,0,0,0,0,0],"sum_hessian":[9.690548E1,4.7396683E1,4.9508797E1,4.3024414E1,6.4843807E0,1.4045947E0,4.161982E1],"tree_param":{"num_deleted":"0","num_feature":"34","num_nodes":"7","size_leaf_vector":"1"}},{"base_weights":[9.231194E-3,1.4483707E-1,-1.3043405E0,-1.8142478E0,7.629019E-1,8.922906E-2,-1.930663E-1,1.2928379E-1,-2.5987098E-2],"categories":[],"categories_nodes":[],"categories_segments":[],"categories_sizes":[],"default_left":[0,0,0,0,0,0,0,0,0],"id":2,"left_children":[1,-1,3,5,7,-1,-1,-1,-1],"loss_changes":[1.828651E2,0E0,5.4696808E1,1.4598709E1,6.14131E0,0E0,0E0,0E0,0E0],"parents":[2147483647,0,0,2,2,3,3,4,4],"right_children":[2,-1,4,6,8,-1,-1,-1,-1],"split_conditions":[6.537126E-1,1.4483707E-1,5.000855E-1,1.9875807E-1,7.789815E-1,8.922906E-2,-1.930663E-1,1.2928379E-1,-2.5987098E-2],"split_indices":[14,0,25,1,0,0,0,0,0],"split_type":[0,0,0,0,0,0,0,0,0],"sum_hessian":[9.473354E1,4.515712E1,4.9576424E1,3.9865547E1,9.710877E0,1.3691616E0,3.8496387E1,6.2226458E0,3.4882317E0],"tree_param":{"num_deleted":"0","num_feature":"34","num_nodes":"9","size_leaf_vector":"1"}},{"base_weights":[1.1911047E-2,1.383287E-1,-1.1917413E0,-1.6549069E0,7.168381E-1,8.551475E-2,-1.7623176E-1,1.2323929E-1,-2.3958633E-2],"categories":[],"categories_nodes":[],"categories_segments":[],"categories_sizes":[],"default_left":[0,0,0,0,0,0,0,0,0],"id":3,"left_children":[1,-1,3,5,7,-1,-1,-1,-1],"loss_changes":[1.5442403E2,0E0,4.5234116E1,1.2399155E1,5.437449E0,0E0,0E0,0E0,0E0],"parents":[2147483647,0,0,2,2,3,3,4,4],"right_children":[2,-1,4,6,8,-1,-1,-1,-1],"split_conditions":[6.537126E-1,1.383287E-1,5.000855E-1,1.9875807E-1,7.789815E-1,8.551475E-2,-1.7623176E-1,1.2323929E-1,-2.3958633E-2],"split_indices":[14,0,25,1,0,0,0,0,0],"split_type":[0,0,0,0,0,0,0,0,0],"sum_hessian":[9.155419E1,4.2725662E1,4.882853E1,3.9400024E1,9.428508E0,1.3311527E0,3.806887E1,5.93873E0,3.4897778E0],"tree_param":{"num_deleted":"0","num_feature":"34","num_nodes":"9","size_leaf_vector":"1"}},{"base_weights":[1.4122783E-2,1.3289054E-1,-1.1028513E0,-1.5325233E0,6.75549E-1,8.210271E-2,-1.6338961E-1,1.17983356E-1,-2.209433E-2],"categories":[],"categories_nodes":[],"categories_segments":[],"categories_sizes":[],"default_left":[0,0,0,0,0,0,0,0,0],"id":4,"left_children":[1,-1,3,5,7,-1,-1,-1,-1],"loss_changes":[1.317343E2,0E0,3.8100285E1,1.0735397E1,4.841653E0,0E0,0E0,0E0,0E0],"parents":[2147483647,0,0,2,2,3,3,4,4],"right_children":[2,-1,4,6,8,-1,-1,-1,-1],"split_conditions":[6.537126E-1,1.3289054E-1,5.000855E-1,1.9875807E-1,7.789815E-1,8.210271E-2,-1.6338961E-1,1.17983356E-1,-2.209433E-2],"split_indices":[14,0,25,1,0,0,0,0,0],"split_type":[0,0,0,0,0,0,0,0,0],"sum_hessian":[8.7703964E1,4.0197742E1,4.750622E1,3.8373272E1,9.132951E0,1.2914271E0,3.7081844E1,5.642782E0,3.4901686E0],"tree_param":{"num_deleted":"0","num_feature":"34","num_nodes":"9","size_leaf_vector":"1"}},{"base_weights":[1.6062489E-2,1.282844E-1,-1.0304769E0,-1.3660709E0,9.602665E-1,7.895129E-2,-1.4549766E-1,1.12698756E-1,5.1440466E-3],"categories":[],"categories_nodes":[],"categories_segments":[],"categories_sizes":[],"default_left":[0,0,0,0,0,0,0,0,0],"id":5,"left_children":[1,-1,3,5,7,-1,-1,-1,-1],"loss_changes":[1.1326266E2,0E0,3.2572857E1,8.901657E0,1.0537939E0,0E0,0E0,0E0,0E0],"parents":[2147483647,0,0,2,2,3,3,4,4],"right_children":[2,-1,4,6,8,-1,-1,-1,-1],"split_conditions":[6.537126E-1,1.282844E-1,4.6643004E-1,1.9875807E-1,7.7823144E-1,7.895129E-2,-1.4549766E-1,1.12698756E-1,5.1440466E-3],"split_indices":[14,0,17,1,4,0,0,0,0],"split_type":[0,0,0,0,0,0,0,0,0],"sum_hessian":[8.3436615E1,3.7644325E1,4.579229E1,3.9454884E1,6.3374066E0,1.2506914E0,3.8204193E1,5.1522045E0,1.1852019E0],"tree_param":{"num_deleted":"0","num_feature":"34","num_nodes":"9","size_leaf_vector":"1"}},{"base_weights":[1.8360995E-2,1.24336E-1,-9.6750796E-1,-1.3606625E0,6.373535E-1,7.602644E-2,-1.4552146E-1,1.0937827E-1,-1.253285E-2],"categories":[],"categories_nodes":[],"categories_segments":[],"categories_sizes":[],"default_left":[0,0,0,0,0,0,0,0,0],"id":6,"left_children":[1,-1,3,5,7,-1,-1,-1,-1],"loss_changes":[9.783536E1,0E0,2.9195236E1,8.402191E0,3.4495103E0,0E0,0E0,0E0,0E0],"parents":[2147483647,0,0,2,2,3,3,4,4],"right_children":[2,-1,4,6,8,-1,-1,-1,-1],"split_conditions":[6.537126E-1,1.24336E-1,5.000855E-1,1.9875807E-1,7.789815E-1,7.602644E-2,-1.4552146E-1,1.0937827E-1,-1.253285E-2],"split_indices":[14,0,25,1,0,0,0,0,0],"split_type":[0,0,0,0,0,0,0,0,0],"sum_hessian":[7.901436E1,3.5117573E1,4.3896786E1,3.538133E1,8.515458E0,1.2095208E0,3.4171806E1,5.0557213E0,3.4597373E0],"tree_param":{"num_deleted":"0","num_feature":"34","num_nodes":"9","size_leaf_vector":"1"}},{"base_weights":[2.0120393E-2,1.20914534E-1,-9.157059E-1,-1.294659E0,6.0427034E-1,7.329998E-2,-1.3875507E-1,1.0562332E-1,-1.1568366E-2],"categories":[],"categories_nodes":[],"categories_segments":[],"categories_sizes":[],"default_left":[0,0,0,0,0,0,0,0,0],"id":7,"left_children":[1,-1,3,5,7,-1,-1,-1,-1],"loss_changes":[8.504809E1,0E0,2.5424953E1,7.527088E0,3.1221435E0,0E0,0E0,0E0,0E0],"parents":[2147483647,0,0,2,2,3,3,4,4],"right_children":[2,-1,4,6,8,-1,-1,-1,-1],"split_conditions":[6.537126E-1,1.20914534E-1,5.000855E-1,1.9875807E-1,7.789815E-1,7.329998E-2,-1.3875507E-1,1.0562332E-1,-1.1568366E-2],"split_indices":[14,0,25,1,0,0,0,0,0],"split_type":[0,0,0,0,0,0,0,0,0],"sum_hessian":[7.4437485E1,3.2655106E1,4.178238E1,3.3562885E1,8.219497E0,1.1683774E0,3.239451E1,4.7626076E0,3.4568887E0],"tree_param":{"num_deleted":"0","num_feature":"34","num_nodes":"9","size_leaf_vector":"1"}},{"base_weights":[2.184372E-2,1.1791976E-1,-8.7065107E-1,-1.2389815E0,5.735331E-1,7.074853E-2,-1.3310283E-1,1.02195494E-1,-1.06783025E-2],"categories":[],"categories_nodes":[],"categories_segments":[],"categories_sizes":[],"default_left":[0,0,0,0,0,0,0,0,0],"id":8,"left_children":[1,-1,3,5,7,-1,-1,-1,-1],"loss_changes":[7.423557E1,0E0,2.2302727E1,6.793091E0,2.834116E0,0E0,0E0,0E0,0E0],"parents":[2147483647,0,0,2,2,3,3,4,4],"right_children":[2,-1,4,6,8,-1,-1,-1,-1],"split_conditions":[6.537126E-1,1.1791976E-1,5.000855E-1,1.9875807E-1,7.789815E-1,7.074853E-2,-1.3310283E-1,1.02195494E-1,-1.06783025E-2],"split_indices":[14,0,25,1,0,0,0,0,0],"split_type":[0,0,0,0,0,0,0,0,0],"sum_hessian":[6.987484E1,3.0283323E1,3.9591515E1,3.1659136E1,7.9323816E0,1.1276282E0,3.0531507E1,4.4783545E0,3.4540272E0],"tree_param":{"num_deleted":"0","num_feature":"34","num_nodes":"9","size_leaf_vector":"1"}},{"base_weights":[2.3565572E-2,1.1527329E-1,-8.307754E-1,-1.1912768E0,5.4482555E-1,6.83526E-2,-1.2831323E-1,9.9035256E-2,-9.856844E-3],"categories":[],"categories_nodes":[],"categories_segments":[],"categories_sizes":[],"default_left":[0,0,0,0,0,0,0,0,0],"id":9,"left_children":[1,-1,3,5,7,-1,-1,-1,-1],"loss_changes":[6.501598E1,0E0,1.9683287E1,6.1684723E0,2.5789568E0,0E0,0E0,0E0,0E0],"parents":[2147483647,0,0,2,2,3,3,4,4],"right_children":[2,-1,4,6,8,-1,-1,-1,-1],"split_conditions":[6.537126E-1,1.1527329E-1,5.000855E-1,1.9875807E-1,7.789815E-1,6.83526E-2,-1.2831323E-1,9.9035256E-2,-9.856844E-3],"split_indices":[14,0,25,1,0,0,0,0,0],"split_type":[0,0,0,0,0,0,0,0,0],"sum_hessian":[6.540274E1,2.8019974E1,3.7382767E1,2.9726412E1,7.6563554E0,1.0875602E0,2.8638851E1,4.205167E0,3.4511886E0],"tree_param":{"num_deleted":"0","num_feature":"34","num_nodes":"9","size_leaf_vector":"1"}},{"base_weights":[2.5309548E-2,1.12912826E-1,-7.9492104E-1,-1.149825E0,5.179013E-1,6.609576E-2,-1.24202825E-1,9.6095376E-2,-9.098604E-3],"categories":[],"categories_nodes":[],"categories_segments":[],"categories_sizes":[],"default_left":[0,0,0,0,0,0,0,0,0],"id":10,"left_children":[1,-1,3,5,7,-1,-1,-1,-1],"loss_changes":[5.7099716E1,0E0,1.7461641E1,5.6304283E0,2.3515787E0,0E0,0E0,0E0,0E0],"parents":[2147483647,0,0,2,2,3,3,4,4],"right_children":[2,-1,4,6,8,-1,-1,-1,-1],"split_conditions":[6.537126E-1,1.12912826E-1,5.000855E-1,1.9875807E-1,7.789815E-1,6.609576E-2,-1.24202825E-1,9.6095376E-2,-9.098604E-3],"split_indices":[14,0,25,1,0,0,0,0,0],"split_type":[0,0,0,0,0,0,0,0,0],"sum_hessian":[6.107535E1,2.5876144E1,3.519921E1,2.7806305E1,7.392904E0,1.0483929E0,2.6757914E1,3.9445024E0,3.4484012E0],"tree_param":{"num_deleted":"0","num_feature":"34","num_nodes":"9","size_leaf_vector":"1"}},{"base_weights":[2.7093858E-2,1.1078813E-1,-7.6221323E-1,-1.1133356E0,4.925673E-1,6.396416E-2,-1.206344E-1,9.3338154E-2,-8.398695E-3],"categories":[],"categories_nodes":[],"categories_segments":[],"categories_sizes":[],"default_left":[0,0,0,0,0,0,0,0,0],"id":11,"left_children":[1,-1,3,5,7,-1,-1,-1,-1],"loss_changes":[5.0262848E1,0E0,1.5559856E1,5.162178E0,2.147945E0,0E0,0E0,0E0,0E0],"parents":[2147483647,0,0,2,2,3,3,4,4],"right_children":[2,-1,4,6,8,-1,-1,-1,-1],"split_conditions":[6.537126E-1,1.1078813E-1,5.000855E-1,1.9875807E-1,7.789815E-1,6.396416E-2,-1.206344E-1,9.3338154E-2,-8.398695E-3],"split_indices":[14,0,25,1,0,0,0,0,0],"split_type":[0,0,0,0,0,0,0,0,0],"sum_hessian":[5.6929855E1,2.385792E1,3.3071938E1,2.5929007E1,7.142929E0,1.0102904E0,2.4918716E1,3.6972435E0,3.4456859E0],"tree_param":{"num_deleted":"0","num_feature":"34","num_nodes":"9","size_leaf_vector":"1"}},{"base_weights":[2.893103E-2,1.0885804E-1,-7.3198056E-1,-1.0808207E0,4.6867102E-1,3.755649E-2,-1.1743905E-1,9.073337E-2,-7.7525564E-3],"categories":[],"categories_nodes":[],"categories_segments":[],"categories_sizes":[],"default_left":[0,0,0,0,0,0,0,0,0],"id":12,"left_children":[1,-1,3,5,7,-1,-1,-1,-1],"loss_changes":[4.4329197E1,0E0,1.3918821E1,3.8636932E0,1.9647998E0,0E0,0E0,0E0,0E0],"parents":[2147483647,0,0,2,2,3,3,4,4],"right_children":[2,-1,4,6,8,-1,-1,-1,-1],"split_conditions":[6.537126E-1,1.0885804E-1,5.000855E-1,1.989713E-1,7.789815E-1,3.755649E-2,-1.1743905E-1,9.073337E-2,-7.7525564E-3],"split_indices":[14,0,25,1,0,0,0,0,0],"split_type":[0,0,0,0,0,0,0,0,0],"sum_hessian":[5.2990334E1,2.1967564E1,3.1022768E1,2.4115887E1,6.906882E0,1.2739224E0,2.2841965E1,3.4638228E0,3.443059E0],"tree_param":{"num_deleted":"0","num_feature":"34","num_nodes":"9","size_leaf_vector":"1"}},{"base_weights":[3.0330282E-2,1.0708844E-1,-7.0345753E-1,-1.0505414E0,4.4608992E-1,3.569186E-2,-1.1466121E-1,8.8256724E-2,-7.1560913E-3],"categories":[],"categories_nodes":[],"categories_segments":[],"categories_sizes":[],"default_left":[0,0,0,0,0,0,0,0,0],"id":13,"left_children":[1,-1,3,5,7,-1,-1,-1,-1],"loss_changes":[3.9171097E1,0E0,1.2482401E1,3.5767574E0,1.7994974E0,0E0,0E0,0E0,0E0],"parents":[2147483647,0,0,2,2,3,3,4,4],"right_children":[2,-1,4,6,8,-1,-1,-1,-1],"split_conditions":[6.537126E-1,1.0708844E-1,5.000855E-1,1.989713E-1,7.789815E-1,3.569186E-2,-1.1466121E-1,8.8256724E-2,-7.1560913E-3],"split_indices":[14,0,25,1,0,0,0,0,0],"split_type":[0,0,0,0,0,0,0,0,0],"sum_hessian":[4.931495E1,2.0204456E1,2.9110493E1,2.242563E1,6.6848636E0,1.2594336E0,2.1166197E1,3.2443326E0,3.4405313E0],"tree_param":{"num_deleted":"0","num_feature":"34","num_nodes":"9","size_leaf_vector":"1"}},{"base_weights":[3.1772498E-2,1.0545079E-1,-6.7648387E-1,-1.0227876E0,4.247256E-1,3.3918522E-2,-1.1217314E-1,8.5888706E-2,-6.6054314E-3],"categories":[],"categories_nodes":[],"categories_segments":[],"categories_sizes":[],"default_left":[0,0,0,0,0,0,0,0,0],"id":14,"left_children":[1,-1,3,5,7,-1,-1,-1,-1],"loss_changes":[3.4660038E1,0E0,1.1226111E1,3.321148E0,1.6498567E0,0E0,0E0,0E0,0E0],"parents":[2147483647,0,0,2,2,3,3,4,4],"right_children":[2,-1,4,6,8,-1,-1,-1,-1],"split_conditions":[6.537126E-1,1.0545079E-1,5.000855E-1,1.989713E-1,7.789815E-1,3.3918522E-2,-1.1217314E-1,8.5888706E-2,-6.6054314E-3],"split_indices":[14,0,25,1,0,0,0,0,0],"split_type":[0,0,0,0,0,0,0,0,0],"sum_hessian":[4.5864456E1,1.856597E1,2.7298485E1,2.082176E1,6.476724E0,1.2457545E0,1.9576006E1,3.0386133E0,3.438111E0],"tree_param":{"num_deleted":"0","num_feature":"34","num_nodes":"9","size_leaf_vector":"1"}},{"base_weights":[3.3256862E-2,1.0392081E-1,-6.5074086E-1,-9.970632E-1,4.044966E-1,3.2231953E-2,-1.0992261E-1,8.3613686E-2,-6.097059E-3],"categories":[],"categories_nodes":[],"categories_segments":[],"categories_sizes":[],"default_left":[0,0,0,0,0,0,0,0,0],"id":15,"left_children":[1,-1,3,5,7,-1,-1,-1,-1],"loss_changes":[3.0703217E1,0E0,1.0121267E1,3.0918522E0,1.5140617E0,0E0,0E0,0E0,0E0],"parents":[2147483647,0,0,2,2,3,3,4,4],"right_children":[2,-1,4,6,8,-1,-1,-1,-1],"split_conditions":[6.537126E-1,1.0392081E-1,5.000855E-1,1.989713E-1,7.789815E-1,3.2231953E-2,-1.0992261E-1,8.3613686E-2,-6.097059E-3],"split_indices":[14,0,25,1,0,0,0,0,0],"split_type":[0,0,0,0,0,0,0,0,0],"sum_hessian":[4.2639507E1,1.7047922E1,2.5591585E1,1.9309467E1,6.2821174E0,1.2328513E0,1.8076616E1,2.8463147E0,3.435803E0],"tree_param":{"num_deleted":"0","num_feature":"34","num_nodes":"9","size_leaf_vector":"1"}},{"base_weights":[3.478272E-2,1.02477804E-1,-6.259779E-1,-9.729649E-1,3.853348E-1,3.0627936E-2,-1.07867E-1,7.131151E-2,-1.6570007E-2],"categories":[],"categories_nodes":[],"categories_segments":[],"categories_sizes":[],"default_left":[0,0,0,0,0,0,0,0,0],"id":16,"left_children":[1,-1,3,5,7,-1,-1,-1,-1],"loss_changes":[2.7223969E1,0E0,9.144751E0,2.884859E0,1.4006559E0,0E0,0E0,0E0,0E0],"parents":[2147483647,0,0,2,2,3,3,4,4],"right_children":[2,-1,4,6,8,-1,-1,-1,-1],"split_conditions":[6.537126E-1,1.02477804E-1,5.000855E-1,1.989713E-1,7.85065E-1,3.0627936E-2,-1.07867E-1,7.131151E-2,-1.6570007E-2],"split_indices":[14,0,25,1,2,0,0,0,0],"split_type":[0,0,0,0,0,0,0,0,0],"sum_hessian":[3.9636677E1,1.5645158E1,2.3991518E1,1.7890953E1,6.1005664E0,1.2206877E0,1.6670265E1,3.6407483E0,2.4598184E0],"tree_param":{"num_deleted":"0","num_feature":"34","num_nodes":"9","size_leaf_vector":"1"}},{"base_weights":[3.571174E-2,1.0110394E-1,-6.022391E-1,-9.501609E-1,3.6234906E-1,2.9102463E-2,-1.0597105E-1,7.955859E-2,-6.274577E-3],"categories":[],"categories_nodes":[],"categories_segments":[],"categories_sizes":[],"default_left":[0,0,0,0,0,0,0,0,0],"id":17,"left_children":[1,-1,3,5,7,-1,-1,-1,-1],"loss_changes":[2.4177279E1,0E0,8.2398405E0,2.6969032E0,1.3317912E0,0E0,0E0,0E0,0E0],"parents":[2147483647,0,0,2,2,3,3,4,4],"right_children":[2,-1,4,6,8,-1,-1,-1,-1],"split_conditions":[6.537126E-1,1.0110394E-1,5.000855E-1,1.989713E-1,7.789815E-1,2.9102463E-2,-1.0597105E-1,7.955859E-2,-6.274577E-3],"split_indices":[14,0,25,1,0,0,0,0,0],"split_type":[0,0,0,0,0,0,0,0,0],"sum_hessian":[3.687845E1,1.435186E1,2.2526588E1,1.6566204E1,5.9603853E0,1.2092267E0,1.53569765E1,2.5202823E0,3.440103E0],"tree_param":{"num_deleted":"0","num_feature":"34","num_nodes":"9","size_leaf_vector":"1"}},{"base_weights":[3.7309613E-2,9.978372E-2,-5.7891357E-1,-9.2837673E-1,3.454315E-1,2.7651785E-2,-1.04205266E-1,7.749029E-2,-5.7915174E-3],"categories":[],"categories_nodes":[],"categories_segments":[],"categories_sizes":[],"default_left":[0,0,0,0,0,0,0,0,0],"id":18,"left_children":[1,-1,3,5,7,-1,-1,-1,-1],"loss_changes":[2.1469841E1,0E0,7.4708505E0,2.5253134E0,1.2230675E0,0E0,0E0,0E0,0E0],"parents":[2147483647,0,0,2,2,3,3,4,4],"right_children":[2,-1,4,6,8,-1,-1,-1,-1],"split_conditions":[6.537126E-1,9.978372E-2,5.000855E-1,1.989713E-1,7.789815E-1,2.7651785E-2,-1.04205266E-1,7.749029E-2,-5.7915174E-3],"split_indices":[14,0,25,1,0,0,0,0,0],"split_type":[0,0,0,0,0,0,0,0,0],"sum_hessian":[3.4296844E1,1.3161812E1,2.1135033E1,1.5333573E1,5.8014603E0,1.198431E0,1.4135142E1,2.3635936E0,3.4378667E0],"tree_param":{"num_deleted":"0","num_feature":"34","num_nodes":"9","size_leaf_vector":"1"}},{"base_weights":[3.8937483E-2,9.850361E-2,-5.5610657E-1,-9.0738446E-1,3.2941595E-1,2.6272302E-2,-1.0254478E-1,7.5479716E-2,-5.3455625E-3],"categories":[],"categories_nodes":[],"categories_segments":[],"categories_sizes":[],"default_left":[0,0,0,0,0,0,0,0,0],"id":19,"left_children":[1,-1,3,5,7,-1,-1,-1,-1],"loss_changes":[1.9076633E1,0E0,6.7827497E0,2.3678894E0,1.1240304E0,0E0,0E0,0E0,0E0],"parents":[2147483647,0,0,2,2,3,3,4,4],"right_children":[2,-1,4,6,8,-1,-1,-1,-1],"split_conditions":[6.537126E-1,9.850361E-2,5.000855E-1,1.989713E-1,7.789815E-1,2.6272302E-2,-1.0254478E-1,7.5479716E-2,-5.3455625E-3],"split_indices":[14,0,25,1,0,0,0,0,0],"split_type":[0,0,0,0,0,0,0,0,0],"sum_hessian":[3.1912651E1,1.2068604E1,1.9844048E1,1.4190235E1,5.6538115E0,1.1882635E0,1.3001972E1,2.218066E0,3.4357457E0],"tree_param":{"num_deleted":"0","num_feature":"34","num_nodes":"9","size_leaf_vector":"1"}},{"base_weights":[4.0589433E-2,9.725185E-2,-5.337361E-1,-8.869948E-1,3.1425893E-1,2.4960643E-2,-1.0096844E-1,7.352215E-2,-4.933858E-3],"categories":[],"categories_nodes":[],"categories_segments":[],"categories_sizes":[],"default_left":[0,0,0,0,0,0,0,0,0],"id":20,"left_children":[1,-1,3,5,7,-1,-1,-1,-1],"loss_changes":[1.6958765E1,0E0,6.164927E0,2.2227964E0,1.033737E0,0E0,0E0,0E0,0E0],"parents":[2147483647,0,0,2,2,3,3,4,4],"right_children":[2,-1,4,6,8,-1,-1,-1,-1],"split_conditions":[6.537126E-1,9.725185E-2,5.000855E-1,1.989713E-1,7.789815E-1,2.4960643E-2,-1.0096844E-1,7.352215E-2,-4.933858E-3],"split_indices":[14,0,25,1,0,0,0,0,0],"split_type":[0,0,0,0,0,0,0,0,0],"sum_hessian":[2.9715164E1,1.1065849E1,1.8649315E1,1.3132552E1,5.516763E0,1.1786883E0,1.1953864E1,2.0830238E0,3.4337394E0],"tree_param":{"num_deleted":"0","num_feature":"34","num_nodes":"9","size_leaf_vector":"1"}},{"base_weights":[4.2256877E-2,9.6018024E-2,-5.117459E-1,-8.670505E-1,2.9991993E-1,2.3713574E-2,-9.945814E-2,7.161412E-2,-4.5538098E-3],"categories":[],"categories_nodes":[],"categories_segments":[],"categories_sizes":[],"default_left":[0,0,0,0,0,0,0,0,0],"id":21,"left_children":[1,-1,3,5,7,-1,-1,-1,-1],"loss_changes":[1.508277E1,0E0,5.608496E0,2.088498E0,9.513591E-1,0E0,0E0,0E0,0E0],"parents":[2147483647,0,0,2,2,3,3,4,4],"right_children":[2,-1,4,6,8,-1,-1,-1,-1],"split_conditions":[6.537126E-1,9.6018024E-2,5.000855E-1,1.989713E-1,7.789815E-1,2.3713574E-2,-9.945814E-2,7.161412E-2,-4.5538098E-3],"split_indices":[14,0,25,1,0,0,0,0,0],"split_type":[0,0,0,0,0,0,0,0,0],"sum_hessian":[2.7693178E1,1.0147195E1,1.7545984E1,1.2156342E1,5.389642E0,1.1696713E0,1.09866705E1,1.957795E0,3.4318469E0],"tree_param":{"num_deleted":"0","num_feature":"34","num_nodes":"9","size_leaf_vector":"1"}},{"base_weights":[4.3931555E-2,9.47931E-2,-4.9010235E-1,-8.4742254E-1,2.863607E-1,2.2527993E-2,-9.79983E-2,5.9197564E-2,-1.3525073E-2],"categories":[],"categories_nodes":[],"categories_segments":[],"categories_sizes":[],"default_left":[0,0,0,0,0,0,0,0,0],"id":22,"left_children":[1,-1,3,5,7,-1,-1,-1,-1],"loss_changes":[1.34198065E1,0E0,5.105983E0,1.9637032E0,8.8818914E-1,0E0,0E0,0E0,0E0],"parents":[2147483647,0,0,2,2,3,3,4,4],"right_children":[2,-1,4,6,8,-1,-1,-1,-1],"split_conditions":[6.537126E-1,9.47931E-2,5.000855E-1,1.989713E-1,7.85065E-1,2.2527993E-2,-9.79983E-2,5.9197564E-2,-1.3525073E-2],"split_indices":[14,0,25,1,2,0,0,0,0],"split_type":[0,0,0,0,0,0,0,0,0],"sum_hessian":[2.5835388E1,9.306513E0,1.6528875E1,1.12570915E1,5.271784E0,1.1611785E0,1.0095913E1,2.822065E0,2.4497185E0],"tree_param":{"num_deleted":"0","num_feature":"34","num_nodes":"9","size_leaf_vector":"1"}},{"base_weights":[4.4723656E-2,9.356924E-2,-4.6946353E-1,-8.280059E-1,2.69175E-1,2.1401E-2,-9.65755E-2,6.821212E-2,-4.7666677E-3],"categories":[],"categories_nodes":[],"categories_segments":[],"categories_sizes":[],"default_left":[0,0,0,0,0,0,0,0,0],"id":23,"left_children":[1,-1,3,5,7,-1,-1,-1,-1],"loss_changes":[1.1961994E1,0E0,4.62282E0,1.8473263E0,8.4160435E-1,0E0,0E0,0E0,0E0],"parents":[2147483647,0,0,2,2,3,3,4,4],"right_children":[2,-1,4,6,8,-1,-1,-1,-1],"split_conditions":[6.537126E-1,9.356924E-2,5.000855E-1,1.989713E-1,7.789815E-1,2.1401E-2,-9.65755E-2,6.821212E-2,-4.7666677E-3],"split_indices":[14,0,25,1,0,0,0,0,0],"split_type":[0,0,0,0,0,0,0,0,0],"sum_hessian":[2.415193E1,8.537919E0,1.5614011E1,1.0430133E1,5.183878E0,1.1531792E0,9.276954E0,1.7500826E0,3.4337955E0],"tree_param":{"num_deleted":"0","num_feature":"34","num_nodes":"9","size_leaf_vector":"1"}},{"base_weights":[4.639426E-2,9.2339694E-2,-4.484925E-1,-8.087177E-1,2.5735074E-1,2.032972E-2,-9.517821E-2,6.643342E-2,-4.399432E-3],"categories":[],"categories_nodes":[],"categories_segments":[],"categories_sizes":[],"default_left":[0,0,0,0,0,0,0,0,0],"id":24,"left_children":[1,-1,3,5,7,-1,-1,-1,-1],"loss_changes":[1.0651627E1,0E0,4.213254E0,1.7384415E0,7.750393E-1,0E0,0E0,0E0,0E0],"parents":[2147483647,0,0,2,2,3,3,4,4],"right_children":[2,-1,4,6,8,-1,-1,-1,-1],"split_conditions":[6.537126E-1,9.2339694E-2,5.000855E-1,1.989713E-1,7.789815E-1,2.032972E-2,-9.517821E-2,6.643342E-2,-4.399432E-3],"split_indices":[14,0,25,1,0,0,0,0,0],"split_type":[0,0,0,0,0,0,0,0,0],"sum_hessian":[2.2587763E1,7.8358164E0,1.47519455E1,9.670754E0,5.081191E0,1.1456424E0,8.525112E0,1.6492382E0,3.4319527E0],"tree_param":{"num_deleted":"0","num_feature":"34","num_nodes":"9","size_leaf_vector":"1"}},{"base_weights":[4.8043113E-2,9.109859E-2,-4.2786443E-1,-7.894938E-1,2.461841E-1,1.9311529E-2,-9.37965E-2,6.469799E-2,-4.0604295E-3],"categories":[],"categories_nodes":[],"categories_segments":[],"categories_sizes":[],"default_left":[0,0,0,0,0,0,0,0,0],"id":25,"left_children":[1,-1,3,5,7,-1,-1,-1,-1],"loss_changes":[9.48848E0,0E0,3.8410223E0,1.6362772E0,7.1432394E-1,0E0,0E0,0E0,0E0],"parents":[2147483647,0,0,2,2,3,3,4,4],"right_children":[2,-1,4,6,8,-1,-1,-1,-1],"split_conditions":[6.537126E-1,9.109859E-2,5.000855E-1,1.989713E-1,7.789815E-1,1.9311529E-2,-9.37965E-2,6.469799E-2,-4.0604295E-3],"split_indices":[14,0,25,1,0,0,0,0,0],"split_type":[0,0,0,0,0,0,0,0,0],"sum_hessian":[2.1155153E1,7.194844E0,1.396031E1,8.974298E0,4.986013E0,1.1385404E0,7.835757E0,1.5557936E0,3.4302192E0],"tree_param":{"num_deleted":"0","num_feature":"34","num_nodes":"9","size_leaf_vector":"1"}},{"base_weights":[4.965874E-2,8.984112E-2,-4.0760326E-1,-7.7028775E-1,2.356401E-1,1.8343853E-2,-9.242191E-2,6.300516E-2,-3.74749E-3],"categories":[],"categories_nodes":[],"categories_segments":[],"categories_sizes":[],"default_left":[0,0,0,0,0,0,0,0,0],"id":26,"left_children":[1,-1,3,5,7,-1,-1,-1,-1],"loss_changes":[8.455797E0,0E0,3.5022216E0,1.5401726E0,6.589177E-1,0E0,0E0,0E0,0E0],"parents":[2147483647,0,0,2,2,3,3,4,4],"right_children":[2,-1,4,6,8,-1,-1,-1,-1],"split_conditions":[6.537126E-1,8.984112E-2,5.000855E-1,1.989713E-1,7.789815E-1,1.8343853E-2,-9.242191E-2,6.300516E-2,-3.74749E-3],"split_indices":[14,0,25,1,0,0,0,0,0],"split_type":[0,0,0,0,0,0,0,0,0],"sum_hessian":[1.9843994E1,6.61E0,1.32339945E1,8.336219E0,4.897776E0,1.1318467E0,7.204372E0,1.4691844E0,3.4285915E0],"tree_param":{"num_deleted":"0","num_feature":"34","num_nodes":"9","size_leaf_vector":"1"}},{"base_weights":[5.1232386E-2,8.856348E-2,-3.8773903E-1,-7.510692E-1,2.2568648E-1,1.7424235E-2,-9.104734E-2,5.051139E-2,-1.1390596E-2],"categories":[],"categories_nodes":[],"categories_segments":[],"categories_sizes":[],"default_left":[0,0,0,0,0,0,0,0,0],"id":27,"left_children":[1,-1,3,5,7,-1,-1,-1,-1],"loss_changes":[7.538854E0,0E0,3.1935108E0,1.4495716E0,6.094202E-1,0E0,0E0,0E0,0E0],"parents":[2147483647,0,0,2,2,3,3,4,4],"right_children":[2,-1,4,6,8,-1,-1,-1,-1],"split_conditions":[6.537126E-1,8.856348E-2,5.000855E-1,1.989713E-1,7.85065E-1,1.7424235E-2,-9.104734E-2,5.051139E-2,-1.1390596E-2],"split_indices":[14,0,25,1,2,0,0,0,0],"split_type":[0,0,0,0,0,0,0,0,0],"sum_hessian":[1.8644758E1,6.076655E0,1.2568104E1,7.7521453E0,4.8159585E0,1.1255358E0,6.6266093E0,2.3746274E0,2.4413311E0],"tree_param":{"num_deleted":"0","num_feature":"34","num_nodes":"9","size_leaf_vector":"1"}},{"base_weights":[5.1646665E-2,8.726265E-2,-3.6936232E-1,-7.318219E-1,2.1226233E-1,1.6550334E-2,-8.9666866E-2,4.1347142E-2,-2.2481792E-2],"categories":[],"categories_nodes":[],"categories_segments":[],"categories_sizes":[],"default_left":[0,0,0,0,0,0,0,0,0],"id":28,"left_children":[1,-1,3,5,7,-1,-1,-1,-1],"loss_changes":[6.7390056E0,0E0,2.8905048E0,1.3640032E0,5.9919286E-1,0E0,0E0,0E0,0E0],"parents":[2147483647,0,0,2,2,3,3,4,4],"right_children":[2,-1,4,6,8,-1,-1,-1,-1],"split_conditions":[6.537126E-1,8.726265E-2,5.000855E-1,1.989713E-1,7.809086E-1,1.6550334E-2,-8.9666866E-2,4.1347142E-2,-2.2481792E-2],"split_indices":[14,0,25,1,6,0,0,0,0],"split_type":[0,0,0,0,0,0,0,0,0],"sum_hessian":[1.7564667E1,5.5904408E0,1.1974226E1,7.2179027E0,4.756324E0,1.1195841E0,6.0983186E0,3.2939668E0,1.4623567E0],"tree_param":{"num_deleted":"0","num_feature":"34","num_nodes":"9","size_leaf_vector":"1"}},{"base_weights":[5.086054E-2,8.593636E-2,-3.5278463E-1,-7.125426E-1,1.9605054E-1,1.5719973E-2,-8.8275746E-2,5.8946777E-2,-5.0532846E-3],"categories":[],"categories_nodes":[],"categories_segments":[],"categories_sizes":[],"default_left":[0,0,0,0,0,0,0,0,0],"id":29,"left_children":[1,-1,3,5,7,-1,-1,-1,-1],"loss_changes":[6.0424085E0,0E0,2.5957437E0,1.283073E0,5.836618E-1,0E0,0E0,0E0,0E0],"parents":[2147483647,0,0,2,2,3,3,4,4],"right_children":[2,-1,4,6,8,-1,-1,-1,-1],"split_conditions":[6.537126E-1,8.593636E-2,5.000855E-1,1.989713E-1,7.789815E-1,1.5719973E-2,-8.8275746E-2,5.8946777E-2,-5.0532846E-3],"split_indices":[14,0,25,1,0,0,0,0,0],"split_type":[0,0,0,0,0,0,0,0,0],"sum_hessian":[1.6586233E1,5.1472545E0,1.143898E1,6.7295327E0,4.709447E0,1.1139703E0,5.6155624E0,1.2787286E0,3.4307182E0],"tree_param":{"num_deleted":"0","num_feature":"34","num_nodes":"9","size_leaf_vector":"1"}},{"base_weights":[5.2326106E-2,8.458339E-2,-3.3425918E-1,-6.9323957E-1,1.8849044E-1,1.4930983E-2,-8.6870275E-2,5.7401933E-2,-4.6641314E-3],"categories":[],"categories_nodes":[],"categories_segments":[],"categories_sizes":[],"default_left":[0,0,0,0,0,0,0,0,0],"id":30,"left_children":[1,-1,3,5,7,-1,-1,-1,-1],"loss_changes":[5.395684E0,0E0,2.3683453E0,1.2064445E0,5.3812903E-1,0E0,0E0,0E0,0E0],"parents":[2147483647,0,0,2,2,3,3,4,4],"right_children":[2,-1,4,6,8,-1,-1,-1,-1],"split_conditions":[6.537126E-1,8.458339E-2,5.000855E-1,1.989713E-1,7.789815E-1,1.4930983E-2,-8.6870275E-2,5.7401933E-2,-4.6641314E-3],"split_indices":[14,0,25,1,0,0,0,0,0],"split_type":[0,0,0,0,0,0,0,0,0],"sum_hessian":[1.5667698E1,4.7434E0,1.0924298E1,6.28331E0,4.6409883E0,1.1086732E0,5.174637E0,1.212186E0,3.4288023E0],"tree_param":{"num_deleted":"0","num_feature":"34","num_nodes":"9","size_leaf_vector":"1"}},{"base_weights":[5.3713325E-2,8.320322E-2,-3.1627274E-1,-6.73931E-1,1.8135144E-1,1.4181363E-2,-8.54478E-2,5.589903E-2,-4.3048896E-3],"categories":[],"categories_nodes":[],"categories_segments":[],"categories_sizes":[],"default_left":[0,0,0,0,0,0,0,0,0],"id":31,"left_children":[1,-1,3,5,7,-1,-1,-1,-1],"loss_changes":[4.8212457E0,0E0,2.1606383E0,1.1338377E0,4.967038E-1,0E0,0E0,0E0,0E0],"parents":[2147483647,0,0,2,2,3,3,4,4],"right_children":[2,-1,4,6,8,-1,-1,-1,-1],"split_conditions":[6.537126E-1,8.320322E-2,5.000855E-1,1.989713E-1,7.789815E-1,1.4181363E-2,-8.54478E-2,5.589903E-2,-4.3048896E-3],"split_indices":[14,0,25,1,0,0,0,0,0],"split_type":[0,0,0,0,0,0,0,0,0],"sum_hessian":[1.4828532E1,4.3754096E0,1.0453123E1,5.8757424E0,4.57738E0,1.1036738E0,4.772069E0,1.150383E0,3.426997E0],"tree_param":{"num_deleted":"0","num_feature":"34","num_nodes":"9","size_leaf_vector":"1"}},{"base_weights":[5.5012215E-2,8.1796005E-2,-2.9886162E-1,-6.546441E-1,1.7460775E-1,1.3469155E-2,-8.400659E-2,4.3760117E-2,-1.1205673E-2],"categories":[],"categories_nodes":[],"categories_segments":[],"categories_sizes":[],"default_left":[0,0,0,0,0,0,0,0,0],"id":32,"left_children":[1,-1,3,5,7,-1,-1,-1,-1],"loss_changes":[4.3109784E0,0E0,1.9709542E0,1.0650134E0,4.650613E-1,0E0,0E0,0E0,0E0],"parents":[2147483647,0,0,2,2,3,3,4,4],"right_children":[2,-1,4,6,8,-1,-1,-1,-1],"split_conditions":[6.537126E-1,8.1796005E-2,5.000855E-1,1.989713E-1,7.85065E-1,1.3469155E-2,-8.400659E-2,4.3760117E-2,-1.1205673E-2],"split_indices":[14,0,25,1,2,0,0,0,0],"split_type":[0,0,0,0,0,0,0,0,0],"sum_hessian":[1.4061901E1,4.0400834E0,1.0021818E1,5.5035744E0,4.5182433E0,1.0989537E0,4.4046206E0,2.08181E0,2.4364333E0],"tree_param":{"num_deleted":"0","num_feature":"34","num_nodes":"9","size_leaf_vector":"1"}},{"base_weights":[5.4877866E-2,8.036282E-2,-2.8346726E-1,-6.354121E-1,1.6446306E-1,1.2792544E-2,-8.254579E-2,3.545561E-2,-2.1373896E-2],"categories":[],"categories_nodes":[],"categories_segments":[],"categories_sizes":[],"default_left":[0,0,0,0,0,0,0,0,0],"id":33,"left_children":[1,-1,3,5,7,-1,-1,-1,-1],"loss_changes":[3.8692803E0,0E0,1.7817976E0,9.9977064E-1,4.6945745E-1,0E0,0E0,0E0,0E0],"parents":[2147483647,0,0,2,2,3,3,4,4],"right_children":[2,-1,4,6,8,-1,-1,-1,-1],"split_conditions":[6.537126E-1,8.036282E-2,5.000855E-1,1.989713E-1,7.809086E-1,1.2792544E-2,-8.254579E-2,3.545561E-2,-2.1373896E-2],"split_indices":[14,0,25,1,6,0,0,0,0],"split_type":[0,0,0,0,0,0,0,0,0],"sum_hessian":[1.3374102E1,3.7345192E0,9.639582E0,5.1637797E0,4.475802E0,1.0944966E0,4.0692835E0,3.0202677E0,1.4555343E0],"tree_param":{"num_deleted":"0","num_feature":"34","num_nodes":"9","size_leaf_vector":"1"}},{"base_weights":[5.335098E-2,7.890512E-2,-2.7024588E-1,-6.162745E-1,1.516053E-1,1.214979E-2,-8.106538E-2,5.2373942E-2,-5.214801E-3],"categories":[],"categories_nodes":[],"categories_segments":[],"categories_sizes":[],"default_left":[0,0,0,0,0,0,0,0,0],"id":34,"left_children":[1,-1,3,5,7,-1,-1,-1,-1],"loss_changes":[3.487092E0,0E0,1.5963097E0,9.37938E-1,4.3994913E-1,0E0,0E0,0E0,0E0],"parents":[2147483647,0,0,2,2,3,3,4,4],"right_children":[2,-1,4,6,8,-1,-1,-1,-1],"split_conditions":[6.537126E-1,7.890512E-2,5.000855E-1,1.989713E-1,7.789815E-1,1.214979E-2,-8.106538E-2,5.2373942E-2,-5.214801E-3],"split_indices":[14,0,25,1,0,0,0,0,0],"split_type":[0,0,0,0,0,0,0,0,0],"sum_hessian":[1.275163E1,3.4560025E0,9.295628E0,4.853557E0,4.4420705E0,1.0902867E0,3.7632704E0,1.015998E0,3.4260726E0],"tree_param":{"num_deleted":"0","num_feature":"34","num_nodes":"9","size_leaf_vector":"1"}},{"base_weights":[5.449628E-2,7.7424996E-2,-2.545631E-1,-5.972744E-1,1.4669271E-1,1.1539145E-2,-7.956609E-2,3.9942555E-2,-1.1391635E-2],"categories":[],"categories_nodes":[],"categories_segments":[],"categories_sizes":[],"default_left":[0,0,0,0,0,0,0,0,0],"id":35,"left_children":[1,-1,3,5,7,-1,-1,-1,-1],"loss_changes":[3.1254685E0,0E0,1.4575834E0,8.7936175E-1,4.0064266E-1,0E0,0E0,0E0,0E0],"parents":[2147483647,0,0,2,2,3,3,4,4],"right_children":[2,-1,4,6,8,-1,-1,-1,-1],"split_conditions":[6.537126E-1,7.7424996E-2,5.000855E-1,1.989713E-1,7.85065E-1,1.1539145E-2,-7.956609E-2,3.9942555E-2,-1.1391635E-2],"split_indices":[14,0,25,1,2,0,0,0,0],"split_type":[0,0,0,0,0,0,0,0,0],"sum_hessian":[1.2164387E1,3.2020662E0,8.96232E0,4.5703154E0,4.3920054E0,1.0863082E0,3.484007E0,1.9592788E0,2.4327266E0],"tree_param":{"num_deleted":"0","num_feature":"34","num_nodes":"9","size_leaf_vector":"1"}},{"base_weights":[5.4046918E-2,7.592528E-2,-2.4115513E-1,-5.7845694E-1,1.3834566E-1,1.0959125E-2,-7.804935E-2,3.1970978E-2,-2.0728635E-2],"categories":[],"categories_nodes":[],"categories_segments":[],"categories_sizes":[],"default_left":[0,0,0,0,0,0,0,0,0],"id":36,"left_children":[1,-1,3,5,7,-1,-1,-1,-1],"loss_changes":[2.8141901E0,0E0,1.3176124E0,8.2391524E-1,4.0204424E-1,0E0,0E0,0E0,0E0],"parents":[2147483647,0,0,2,2,3,3,4,4],"right_children":[2,-1,4,6,8,-1,-1,-1,-1],"split_conditions":[6.537126E-1,7.592528E-2,5.000855E-1,1.989713E-1,7.809086E-1,1.0959125E-2,-7.804935E-2,3.1970978E-2,-2.0728635E-2],"split_indices":[14,0,25,1,6,0,0,0,0],"split_type":[0,0,0,0,0,0,0,0,0],"sum_hessian":[1.1638652E1,2.970491E0,8.66816E0,4.311672E0,4.356488E0,1.0825491E0,3.2291229E0,2.906405E0,1.4500836E0],"tree_param":{"num_deleted":"0","num_feature":"34","num_nodes":"9","size_leaf_vector":"1"}},{"base_weights":[5.2136082E-2,7.440894E-2,-2.3002976E-1,-5.5986834E-1,1.2734802E-1,1.0408141E-2,-7.651711E-2,3.734515E-2,-1.1778585E-2],"categories":[],"categories_nodes":[],"categories_segments":[],"categories_sizes":[],"default_left":[0,0,0,0,0,0,0,0,0],"id":37,"left_children":[1,-1,3,5,7,-1,-1,-1,-1],"loss_changes":[2.54586E0,0E0,1.179745E0,7.7147627E-1,3.6541563E-1,0E0,0E0,0E0,0E0],"parents":[2147483647,0,0,2,2,3,3,4,4],"right_children":[2,-1,4,6,8,-1,-1,-1,-1],"split_conditions":[6.537126E-1,7.440894E-2,5.000855E-1,1.989713E-1,7.85065E-1,1.0408141E-2,-7.651711E-2,3.734515E-2,-1.1778585E-2],"split_indices":[14,0,25,1,2,0,0,0,0],"split_type":[0,0,0,0,0,0,0,0,0],"sum_hessian":[1.1162618E1,2.7591965E0,8.403421E0,4.075435E0,4.3279862E0,1.0789953E0,2.9964397E0,1.8985088E0,2.4294775E0],"tree_param":{"num_deleted":"0","num_feature":"34","num_nodes":"9","size_leaf_vector":"1"}},{"base_weights":[5.1539965E-2,7.2879605E-2,-2.179011E-1,-5.4155433E-1,1.202325E-1,9.884784E-3,-7.4971914E-2,2.9454127E-2,-2.034132E-2],"categories":[],"categories_nodes":[],"categories_segments":[],"categories_sizes":[],"default_left":[0,0,0,0,0,0,0,0,0],"id":38,"left_children":[1,-1,3,5,7,-1,-1,-1,-1],"loss_changes":[2.2978148E0,0E0,1.0670725E0,7.219367E-1,3.586784E-1,0E0,0E0,0E0,0E0],"parents":[2147483647,0,0,2,2,3,3,4,4],"right_children":[2,-1,4,6,8,-1,-1,-1,-1],"split_conditions":[6.537126E-1,7.2879605E-2,5.000855E-1,1.989713E-1,7.809086E-1,9.884784E-3,-7.4971914E-2,2.9454127E-2,-2.034132E-2],"split_indices":[14,0,25,1,6,0,0,0,0],"split_type":[0,0,0,0,0,0,0,0,0],"sum_hessian":[1.0721845E1,2.5663435E0,8.155501E0,3.8595936E0,4.2959075E0,1.0756354E0,2.7839582E0,2.8505747E0,1.4453329E0],"tree_param":{"num_deleted":"0","num_feature":"34","num_nodes":"9","size_leaf_vector":"1"}},{"base_weights":[4.9463067E-2,7.1340896E-2,-2.0807108E-1,-5.23559E-1,1.10518515E-1,9.387652E-3,-7.3416665E-2,3.4959327E-2,-1.2029494E-2],"categories":[],"categories_nodes":[],"categories_segments":[],"categories_sizes":[],"default_left":[0,0,0,0,0,0,0,0,0],"id":39,"left_children":[1,-1,3,5,7,-1,-1,-1,-1],"loss_changes":[2.0844655E0,0E0,9.556613E-1,6.7519176E-1,3.3286265E-1,0E0,0E0,0E0,0E0],"parents":[2147483647,0,0,2,2,3,3,4,4],"right_children":[2,-1,4,6,8,-1,-1,-1,-1],"split_conditions":[6.537126E-1,7.1340896E-2,5.000855E-1,1.989713E-1,7.85065E-1,9.387652E-3,-7.3416665E-2,3.4959327E-2,-1.2029494E-2],"split_indices":[14,0,25,1,2,0,0,0,0],"split_type":[0,0,0,0,0,0,0,0,0],"sum_hessian":[1.0322533E1,2.3902092E0,7.932324E0,3.6623073E0,4.2700167E0,1.0724576E0,2.5898497E0,1.8446887E0,2.425328E0],"tree_param":{"num_deleted":"0","num_feature":"34","num_nodes":"9","size_leaf_vector":"1"}},{"base_weights":[4.8753288E-2,6.979651E-2,-1.97178E-1,-4.612955E-1,1.6539742E-1,8.915474E-3,-6.2112182E-2,4.1531898E-2,-1.2843861E-2],"categories":[],"categories_nodes":[],"categories_segments":[],"categories_sizes":[],"default_left":[0,0,0,0,0,0,0,0,0],"id":40,"left_children":[1,-1,3,5,7,-1,-1,-1,-1],"loss_changes":[1.8862387E0,0E0,9.116132E-1,5.225766E-1,3.7736195E-1,0E0,0E0,0E0,0E0],"parents":[2147483647,0,0,2,2,3,3,4,4],"right_children":[2,-1,4,6,8,-1,-1,-1,-1],"split_conditions":[6.537126E-1,6.979651E-2,6.546689E-1,1.989713E-1,7.824772E-1,8.915474E-3,-6.2112182E-2,4.1531898E-2,-1.2843861E-2],"split_indices":[14,0,32,1,0,0,0,0,0],"split_type":[0,0,0,0,0,0,0,0,0],"sum_hessian":[9.952016E0,2.2292285E0,7.722788E0,4.310521E0,3.4122663E0,1.0694517E0,3.2410696E0,1.6205087E0,1.7917577E0],"tree_param":{"num_deleted":"0","num_feature":"34","num_nodes":"9","size_leaf_vector":"1"}},{"base_weights":[4.951683E-2,6.8250686E-2,-1.8399368E-1,-4.9172062E-1,1.0685866E-1,8.466992E-3,-7.05327E-2,2.7154107E-2,-1.9169753E-2],"categories":[],"categories_nodes":[],"categories_segments":[],"categories_sizes":[],"default_left":[0,0,0,0,0,0,0,0,0],"id":41,"left_children":[1,-1,3,5,7,-1,-1,-1,-1],"loss_changes":[1.6995573E0,0E0,8.192874E-1,5.941993E-1,3.0897874E-1,0E0,0E0,0E0,0E0],"parents":[2147483647,0,0,2,2,3,3,4,4],"right_children":[2,-1,4,6,8,-1,-1,-1,-1],"split_conditions":[6.537126E-1,6.8250686E-2,5.000855E-1,1.989713E-1,7.809086E-1,8.466992E-3,-7.05327E-2,2.7154107E-2,-1.9169753E-2],"split_indices":[14,0,25,1,6,0,0,0,0],"split_type":[0,0,0,0,0,0,0,0,0],"sum_hessian":[9.6486845E0,2.0820217E0,7.566663E0,3.3411002E0,4.2255626E0,1.0666078E0,2.2744923E0,2.7816832E0,1.4438794E0],"tree_param":{"num_deleted":"0","num_feature":"34","num_nodes":"9","size_leaf_vector":"1"}},{"base_weights":[4.7225557E-2,6.67069E-2,-1.7613375E-1,-4.748361E-1,9.8172255E-2,8.041031E-3,-6.896726E-2,3.3654902E-2,-1.2347235E-2],"categories":[],"categories_nodes":[],"categories_segments":[],"categories_sizes":[],"default_left":[0,0,0,0,0,0,0,0,0],"id":42,"left_children":[1,-1,3,5,7,-1,-1,-1,-1],"loss_changes":[1.548718E0,0E0,7.3408866E-1,5.5502003E-1,3.1642693E-1,0E0,0E0,0E0,0E0],"parents":[2147483647,0,0,2,2,3,3,4,4],"right_children":[2,-1,4,6,8,-1,-1,-1,-1],"split_conditions":[6.537126E-1,6.67069E-2,5.000855E-1,1.989713E-1,7.85065E-1,8.041031E-3,-6.896726E-2,3.3654902E-2,-1.2347235E-2],"split_indices":[14,0,25,1,2,0,0,0,0],"split_type":[0,0,0,0,0,0,0,0,0],"sum_hessian":[9.3376465E0,1.9472667E0,7.39038E0,3.1879036E0,4.202476E0,1.0639169E0,2.1239867E0,1.7750299E0,2.4274461E0],"tree_param":{"num_deleted":"0","num_feature":"34","num_nodes":"9","size_leaf_vector":"1"}},{"base_weights":[4.639879E-2,6.516964E-2,-1.6708635E-1,-4.11896E-1,1.4668988E-1,5.226116E-3,-5.8812376E-2,3.8689893E-2,-1.2682064E-2],"categories":[],"categories_nodes":[],"categories_segments":[],"categories_sizes":[],"default_left":[0,0,0,0,0,0,0,0,0],"id":43,"left_children":[1,-1,3,5,7,-1,-1,-1,-1],"loss_changes":[1.4072769E0,0E0,6.921408E-1,4.300894E-1,3.3431107E-1,0E0,0E0,0E0,0E0],"parents":[2147483647,0,0,2,2,3,3,4,4],"right_children":[2,-1,4,6,8,-1,-1,-1,-1],"split_conditions":[6.537126E-1,6.516964E-2,6.546689E-1,6.0962856E-1,7.824772E-1,5.226116E-3,-5.8812376E-2,3.8689893E-2,-1.2682064E-2],"split_indices":[14,0,32,12,0,0,0,0,0],"split_type":[0,0,0,0,0,0,0,0,0],"sum_hessian":[9.047723E0,1.8238575E0,7.2238655E0,3.8822277E0,3.3416376E0,1.261933E0,2.6202948E0,1.5584079E0,1.7832297E0],"tree_param":{"num_deleted":"0","num_feature":"34","num_nodes":"9","size_leaf_vector":"1"}},{"base_weights":[4.6641406E-2,6.364217E-2,-1.558314E-1,-4.4453263E-1,9.601519E-2,8.689599E-3,-6.6547774E-2,3.271582E-2,-1.1615413E-2],"categories":[],"categories_nodes":[],"categories_segments":[],"categories_sizes":[],"default_left":[0,0,0,0,0,0,0,0,0],"id":44,"left_children":[1,-1,3,5,7,-1,-1,-1,-1],"loss_changes":[1.2738578E0,0E0,6.3353425E-1,5.232385E-1,2.9118043E-1,0E0,0E0,0E0,0E0],"parents":[2147483647,0,0,2,2,3,3,4,4],"right_children":[2,-1,4,6,8,-1,-1,-1,-1],"split_conditions":[6.537126E-1,6.364217E-2,5.000855E-1,1.989713E-1,7.85065E-1,8.689599E-3,-6.6547774E-2,3.271582E-2,-1.1615413E-2],"split_indices":[14,0,25,1,2,0,0,0,0],"split_type":[0,0,0,0,0,0,0,0,0],"sum_hessian":[8.8370285E0,1.7107023E0,7.126326E0,2.9637613E0,4.1625648E0,1.0485182E0,1.9152431E0,1.7328182E0,2.4297464E0],"tree_param":{"num_deleted":"0","num_feature":"34","num_nodes":"9","size_leaf_vector":"1"}},{"base_weights":[4.5844264E-2,6.212864E-2,-1.4791156E-1,-3.038513E-1,2.6442727E-2,-4.063442E-2,1.0395314E-2],"categories":[],"categories_nodes":[],"categories_segments":[],"categories_sizes":[],"default_left":[0,0,0,0,0,0,0],"id":45,"left_children":[1,-1,3,5,-1,-1,-1],"loss_changes":[1.1606673E0,0E0,5.933907E-1,3.0367106E-1,0E0,0E0,0E0],"parents":[2147483647,0,0,2,2,3,3],"right_children":[2,-1,4,6,-1,-1,-1],"split_conditions":[6.537126E-1,6.212864E-2,4.6643004E-1,7.1197337E-1,2.6442727E-2,-4.063442E-2,1.0395314E-2],"split_indices":[14,0,17,22,0,0,0],"split_type":[0,0,0,0,0,0,0],"sum_hessian":[8.585806E0,1.6068937E0,6.978912E0,5.254754E0,1.7241582E0,4.2022014E0,1.0525523E0],"tree_param":{"num_deleted":"0","num_feature":"34","num_nodes":"7","size_leaf_vector":"1"}},{"base_weights":[4.8424423E-2,5.925091E-2,-1.4141148E-1,-5.667874E-2,1.3841078E-1,5.2122492E-2,-6.8248543E-3],"categories":[],"categories_nodes":[],"categories_segments":[],"categories_sizes":[],"default_left":[0,0,0,0,0,0,0],"id":46,"left_children":[1,-1,3,-1,5,-1,-1],"loss_changes":[1.0559828E0,0E0,1.0051241E0,0E0,4.706728E-1,0E0,0E0],"parents":[2147483647,0,0,2,2,4,4],"right_children":[2,-1,4,-1,6,-1,-1],"split_conditions":[6.2924E-1,5.925091E-2,6.491623E-1,-5.667874E-2,7.789815E-1,5.2122492E-2,-6.8248543E-3],"split_indices":[26,0,32,0,0,0,0],"split_type":[0,0,0,0,0,0,0],"sum_hessian":[8.4125805E0,1.6273377E0,6.7852426E0,2.2854524E0,4.49979E0,1.0439113E0,3.455879E0],"tree_param":{"num_deleted":"0","num_feature":"34","num_nodes":"7","size_leaf_vector":"1"}},{"base_weights":[4.99502E-2,5.934418E-2,-1.2697555E-1,-3.0474567E-1,1.8976112E-1,9.37313E-3,-4.4050355E-2,-9.88371E-4,2.795334E-2],"categories":[],"categories_nodes":[],"categories_segments":[],"categories_sizes":[],"default_left":[0,0,0,0,0,0,0,0,0],"id":47,"left_children":[1,-1,3,5,7,-1,-1,-1,-1],"loss_changes":[9.5963925E-1,0E0,4.948495E-1,3.3097774E-1,6.381494E-2,0E0,0E0,0E0,0E0],"parents":[2147483647,0,0,2,2,3,3,4,4],"right_children":[2,-1,4,6,8,-1,-1,-1,-1],"split_conditions":[6.537126E-1,5.934418E-2,4.081782E-1,6.0962856E-1,4.1700003E-1,9.37313E-3,-4.4050355E-2,-9.88371E-4,2.795334E-2],"split_indices":[14,0,5,12,1,0,0,0,0],"split_type":[0,0,0,0,0,0,0,0,0],"sum_hessian":[8.196217E0,1.434732E0,6.761485E0,4.3550487E0,2.4064364E0,1.1853564E0,3.1696923E0,1.0224684E0,1.3839679E0],"tree_param":{"num_deleted":"0","num_feature":"34","num_nodes":"9","size_leaf_vector":"1"}},{"base_weights":[5.153198E-2,5.9978664E-2,-1.1424762E-1,-6.447782E-2,1.1844224E-1,5.729791E-2,-1.15733445E-2],"categories":[],"categories_nodes":[],"categories_segments":[],"categories_sizes":[],"default_left":[0,0,0,0,0,0,0],"id":48,"left_children":[1,-1,3,-1,5,-1,-1],"loss_changes":[8.909772E-1,0E0,1.0377923E0,0E0,7.324689E-1,0E0,0E0],"parents":[2147483647,0,0,2,2,4,4],"right_children":[2,-1,4,-1,6,-1,-1],"split_conditions":[1.9347523E-1,5.9978664E-2,6.331356E-1,-6.447782E-2,6.884539E-1,5.729791E-2,-1.15733445E-2],"split_indices":[3,0,16,0,22,0,0],"split_type":[0,0,0,0,0,0,0],"sum_hessian":[8.048939E0,1.260924E0,6.788015E0,1.5295892E0,5.2584257E0,1.2960299E0,3.962396E0],"tree_param":{"num_deleted":"0","num_feature":"34","num_nodes":"7","size_leaf_vector":"1"}},{"base_weights":[5.2371636E-2,5.837468E-2,-1.07505456E-1,-6.266558E-2,1.15680344E-1,5.585888E-2,-1.0669171E-2],"categories":[],"categories_nodes":[],"categories_segments":[],"categories_sizes":[],"default_left":[0,0,0,0,0,0,0],"id":49,"left_children":[1,-1,3,-1,5,-1,-1],"loss_changes":[8.125498E-1,0E0,9.564406E-1,0E0,6.682167E-1,0E0,0E0],"parents":[2147483647,0,0,2,2,4,4],"right_children":[2,-1,4,-1,6,-1,-1],"split_conditions":[1.9347523E-1,5.837468E-2,6.331356E-1,-6.266558E-2,6.884539E-1,5.585888E-2,-1.0669171E-2],"split_indices":[3,0,16,0,22,0,0],"split_type":[0,0,0,0,0,0,0],"sum_hessian":[7.8258057E0,1.1968096E0,6.628996E0,1.4495156E0,5.1794806E0,1.2258813E0,3.9535992E0],"tree_param":{"num_deleted":"0","num_feature":"34","num_nodes":"7","size_leaf_vector":"1"}}]},"name":"gbtree"},"learner_model_param":{"base_score":"6.0294116E-1","boost_from_average":"1","num_class":"0","num_feature":"34","num_target":"1"},"objective":{"name":"binary:logistic","reg_loss_param":{"scale_pos_weight":"1"}}},"version":[3,0,2]}